{
    "average_output": false,
    "feature_importances": {
        "I1": 81,
        "I2": 354,
        "I3": 285
    },
    "feature_infos": {
        "I1": {
            "max_value": 88,
            "min_value": 0,
            "values": []
        },
        "I2": {
            "max_value": 7864,
            "min_value": -2,
            "values": []
        },
        "I3": {
            "max_value": 8457,
            "min_value": 0,
            "values": []
        }
    },
    "feature_names": [
        "I1",
        "I2",
        "I3"
    ],
    "label_index": 0,
    "max_feature_idx": 2,
    "monotone_constraints": [],
    "name": "tree",
    "num_class": 1,
    "num_tree_per_iteration": 1,
    "objective": "binary sigmoid:1",
    "pandas_categorical": [],
    "tree_info": [
        {
            "num_cat": 0,
            "num_leaves": 31,
            "shrinkage": 1,
            "tree_index": 0,
            "tree_structure": {
                "decision_type": "<=",
                "default_left": true,
                "internal_count": 1407,
                "internal_value": -1.2679,
                "internal_weight": 0,
                "left_child": {
                    "decision_type": "<=",
                    "default_left": true,
                    "internal_count": 1180,
                    "internal_value": -1.28776,
                    "internal_weight": 202.234,
                    "left_child": {
                        "decision_type": "<=",
                        "default_left": true,
                        "internal_count": 1054,
                        "internal_value": -1.27979,
                        "internal_weight": 180.64,
                        "left_child": {
                            "decision_type": "<=",
                            "default_left": true,
                            "internal_count": 885,
                            "internal_value": -1.2899,
                            "internal_weight": 151.676,
                            "left_child": {
                                "decision_type": "<=",
                                "default_left": true,
                                "internal_count": 696,
                                "internal_value": -1.27868,
                                "internal_weight": 119.284,
                                "left_child": {
                                    "leaf_count": 197,
                                    "leaf_index": 0,
                                    "leaf_value": -1.2509164148733616,
                                    "leaf_weight": 33.76283133029938
                                },
                                "missing_type": "None",
                                "right_child": {
                                    "decision_type": "<=",
                                    "default_left": true,
                                    "internal_count": 499,
                                    "internal_value": -1.28964,
                                    "internal_weight": 85.5211,
                                    "left_child": {
                                        "leaf_count": 297,
                                        "leaf_index": 7,
                                        "leaf_value": -1.3135338337282139,
                                        "leaf_weight": 50.90132439136505
                                    },
                                    "missing_type": "None",
                                    "right_child": {
                                        "decision_type": "<=",
                                        "default_left": true,
                                        "internal_count": 202,
                                        "internal_value": -1.25451,
                                        "internal_weight": 34.6198,
                                        "left_child": {
                                            "decision_type": "<=",
                                            "default_left": true,
                                            "internal_count": 100,
                                            "internal_value": -1.20933,
                                            "internal_weight": 17.1385,
                                            "left_child": {
                                                "decision_type": "<=",
                                                "default_left": true,
                                                "internal_count": 80,
                                                "internal_value": -1.23559,
                                                "internal_weight": 13.7108,
                                                "left_child": {
                                                    "leaf_count": 30,
                                                    "leaf_index": 8,
                                                    "leaf_value": -1.279350048356234,
                                                    "leaf_weight": 5.141547918319705
                                                },
                                                "missing_type": "None",
                                                "right_child": {
                                                    "decision_type": "<=",
                                                    "default_left": true,
                                                    "internal_count": 50,
                                                    "internal_value": -1.20933,
                                                    "internal_weight": 8.56925,
                                                    "left_child": {
                                                        "leaf_count": 28,
                                                        "leaf_index": 23,
                                                        "leaf_value": -1.1668214051304915,
                                                        "leaf_weight": 4.798778057098387
                                                    },
                                                    "missing_type": "None",
                                                    "right_child": {
                                                        "leaf_count": 22,
                                                        "leaf_index": 24,
                                                        "leaf_value": -1.2634369068899671,
                                                        "leaf_weight": 3.7704684734344482
                                                    },
                                                    "split_feature": 1,
                                                    "split_gain": 1.970960021018982,
                                                    "split_index": 23,
                                                    "threshold": 75.50000000000001
                                                },
                                                "split_feature": 1,
                                                "split_gain": 1.5753999948501587,
                                                "split_index": 22,
                                                "threshold": 56.50000000000001
                                            },
                                            "missing_type": "None",
                                            "right_child": {
                                                "leaf_count": 20,
                                                "leaf_index": 10,
                                                "leaf_value": -1.1043054922273012,
                                                "leaf_weight": 3.427698612213134
                                            },
                                            "split_feature": 1,
                                            "split_gain": 4.726200103759766,
                                            "split_index": 9,
                                            "threshold": 94.50000000000001
                                        },
                                        "missing_type": "None",
                                        "right_child": {
                                            "decision_type": "<=",
                                            "default_left": true,
                                            "internal_count": 102,
                                            "internal_value": -1.2988,
                                            "internal_weight": 17.4813,
                                            "left_child": {
                                                "decision_type": "<=",
                                                "default_left": true,
                                                "internal_count": 55,
                                                "internal_value": -1.32179,
                                                "internal_weight": 9.42617,
                                                "left_child": {
                                                    "leaf_count": 31,
                                                    "leaf_index": 9,
                                                    "leaf_value": -1.2642924521300891,
                                                    "leaf_weight": 5.312932848930361
                                                },
                                                "missing_type": "None",
                                                "right_child": {
                                                    "leaf_count": 24,
                                                    "leaf_index": 30,
                                                    "leaf_value": -1.3960464191088555,
                                                    "leaf_weight": 4.113238334655762
                                                },
                                                "split_feature": 1,
                                                "split_gain": 4.024479866027832,
                                                "split_index": 29,
                                                "threshold": 297.50000000000006
                                            },
                                            "missing_type": "None",
                                            "right_child": {
                                                "leaf_count": 47,
                                                "leaf_index": 29,
                                                "leaf_value": -1.271901343840109,
                                                "leaf_weight": 8.055091738700865
                                            },
                                            "split_feature": 1,
                                            "split_gain": 1.0808099508285522,
                                            "split_index": 28,
                                            "threshold": 587.0000000000001
                                        },
                                        "split_feature": 1,
                                        "split_gain": 6.927070140838623,
                                        "split_index": 8,
                                        "threshold": 129.50000000000003
                                    },
                                    "split_feature": 1,
                                    "split_gain": 7.1788201332092285,
                                    "split_index": 7,
                                    "threshold": 35.50000000000001
                                },
                                "split_feature": 1,
                                "split_gain": 3.629770040512085,
                                "split_index": 6,
                                "threshold": 1.0000000180025095e-35
                            },
                            "missing_type": "None",
                            "right_child": {
                                "decision_type": "<=",
                                "default_left": true,
                                "internal_count": 189,
                                "internal_value": -1.33122,
                                "internal_weight": 32.3918,
                                "left_child": {
                                    "decision_type": "<=",
                                    "default_left": true,
                                    "internal_count": 133,
                                    "internal_value": -1.31708,
                                    "internal_weight": 22.7942,
                                    "left_child": {
                                        "decision_type": "<=",
                                        "default_left": true,
                                        "internal_count": 69,
                                        "internal_value": -1.29457,
                                        "internal_weight": 11.8256,
                                        "left_child": {
                                            "leaf_count": 25,
                                            "leaf_index": 4,
                                            "leaf_value": -1.232671500055185,
                                            "leaf_weight": 4.28462326526642
                                        },
                                        "missing_type": "None",
                                        "right_child": {
                                            "leaf_count": 44,
                                            "leaf_index": 27,
                                            "leaf_value": -1.3297416629994114,
                                            "leaf_weight": 7.5409369468688965
                                        },
                                        "split_feature": 1,
                                        "split_gain": 2.574470043182373,
                                        "split_index": 26,
                                        "threshold": 1.0000000180025095e-35
                                    },
                                    "missing_type": "None",
                                    "right_child": {
                                        "decision_type": "<=",
                                        "default_left": true,
                                        "internal_count": 64,
                                        "internal_value": -1.34134,
                                        "internal_weight": 10.9686,
                                        "left_child": {
                                            "leaf_count": 24,
                                            "leaf_index": 26,
                                            "leaf_value": -1.3960464191088555,
                                            "leaf_weight": 4.11323833465576
                                        },
                                        "missing_type": "None",
                                        "right_child": {
                                            "leaf_count": 40,
                                            "leaf_index": 28,
                                            "leaf_value": -1.3085241410443893,
                                            "leaf_weight": 6.8553972244262695
                                        },
                                        "split_feature": 1,
                                        "split_gain": 1.969249963760376,
                                        "split_index": 27,
                                        "threshold": 1.0000000180025095e-35
                                    },
                                    "split_feature": 2,
                                    "split_gain": 1.2449500560760498,
                                    "split_index": 25,
                                    "threshold": 16.500000000000004
                                },
                                "missing_type": "None",
                                "right_child": {
                                    "leaf_count": 56,
                                    "leaf_index": 25,
                                    "leaf_value": -1.3647884626572604,
                                    "leaf_weight": 9.597556114196776
                                },
                                "split_feature": 1,
                                "split_gain": 1.537310004234314,
                                "split_index": 24,
                                "threshold": 24.500000000000004
                            },
                            "split_feature": 2,
                            "split_gain": 7.030879974365234,
                            "split_index": 3,
                            "threshold": 8.500000000000002
                        },
                        "missing_type": "None",
                        "right_child": {
                            "decision_type": "<=",
                            "default_left": true,
                            "internal_count": 169,
                            "internal_value": -1.22687,
                            "internal_weight": 28.9641,
                            "left_child": {
                                "decision_type": "<=",
                                "default_left": true,
                                "internal_count": 141,
                                "internal_value": -1.24707,
                                "internal_weight": 24.1653,
                                "left_child": {
                                    "decision_type": "<=",
                                    "default_left": true,
                                    "internal_count": 76,
                                    "internal_value": -1.21947,
                                    "internal_weight": 13.0253,
                                    "left_child": {
                                        "leaf_count": 36,
                                        "leaf_index": 3,
                                        "leaf_value": -1.315007272752868,
                                        "leaf_weight": 6.169857501983648
                                    },
                                    "missing_type": "None",
                                    "right_child": {
                                        "decision_type": "<=",
                                        "default_left": true,
                                        "internal_count": 40,
                                        "internal_value": -1.13348,
                                        "internal_weight": 6.8554,
                                        "left_child": {
                                            "leaf_count": 20,
                                            "leaf_index": 15,
                                            "leaf_value": -1.0751313995391458,
                                            "leaf_weight": 3.4276986122131348
                                        },
                                        "missing_type": "None",
                                        "right_child": {
                                            "leaf_count": 20,
                                            "leaf_index": 17,
                                            "leaf_value": -1.1918277702917675,
                                            "leaf_weight": 3.4276986122131348
                                        },
                                        "split_feature": 2,
                                        "split_gain": 2.333930015563965,
                                        "split_index": 16,
                                        "threshold": 4.500000000000001
                                    },
                                    "split_feature": 2,
                                    "split_gain": 10.700599670410156,
                                    "split_index": 14,
                                    "threshold": 1.5000000000000002
                                },
                                "missing_type": "None",
                                "right_child": {
                                    "decision_type": "<=",
                                    "default_left": true,
                                    "internal_count": 65,
                                    "internal_value": -1.27935,
                                    "internal_weight": 11.14,
                                    "left_child": {
                                        "leaf_count": 21,
                                        "leaf_index": 14,
                                        "leaf_value": -1.1737676176752903,
                                        "leaf_weight": 3.5990835428237897
                                    },
                                    "missing_type": "None",
                                    "right_child": {
                                        "decision_type": "<=",
                                        "default_left": true,
                                        "internal_count": 44,
                                        "internal_value": -1.32974,
                                        "internal_weight": 7.54094,
                                        "left_child": {
                                            "leaf_count": 24,
                                            "leaf_index": 16,
                                            "leaf_value": -1.3717346752020594,
                                            "leaf_weight": 4.113238334655762
                                        },
                                        "missing_type": "None",
                                        "right_child": {
                                            "leaf_count": 20,
                                            "leaf_index": 22,
                                            "leaf_value": -1.279350048356234,
                                            "leaf_weight": 3.4276986122131348
                                        },
                                        "split_feature": 1,
                                        "split_gain": 1.595729947090149,
                                        "split_index": 21,
                                        "threshold": 70.50000000000001
                                    },
                                    "split_feature": 2,
                                    "split_gain": 5.9270100593566895,
                                    "split_index": 15,
                                    "threshold": 1.0000000180025095e-35
                                },
                                "split_feature": 1,
                                "split_gain": 2.1532599925994873,
                                "split_index": 13,
                                "threshold": 14.500000000000002
                            },
                            "missing_type": "None",
                            "right_child": {
                                "leaf_count": 28,
                                "leaf_index": 5,
                                "leaf_value": -1.125144129861698,
                                "leaf_weight": 4.798778057098388
                            },
                            "split_feature": 2,
                            "split_gain": 5.952119827270508,
                            "split_index": 4,
                            "threshold": 15.500000000000002
                        },
                        "split_feature": 0,
                        "split_gain": 9.661049842834473,
                        "split_index": 2,
                        "threshold": 1.0000000180025095e-35
                    },
                    "missing_type": "None",
                    "right_child": {
                        "leaf_count": 126,
                        "leaf_index": 2,
                        "leaf_value": -1.354369143840062,
                        "leaf_weight": 21.59450125694275
                    },
                    "split_feature": 2,
                    "split_gain": 10.72760009765625,
                    "split_index": 1,
                    "threshold": 37.50000000000001
                },
                "missing_type": "None",
                "right_child": {
                    "decision_type": "<=",
                    "default_left": true,
                    "internal_count": 227,
                    "internal_value": -1.16471,
                    "internal_weight": 38.9044,
                    "left_child": {
                        "decision_type": "<=",
                        "default_left": true,
                        "internal_count": 145,
                        "internal_value": -1.19082,
                        "internal_weight": 24.8508,
                        "left_child": {
                            "decision_type": "<=",
                            "default_left": true,
                            "internal_count": 68,
                            "internal_value": -1.15579,
                            "internal_weight": 11.6542,
                            "left_child": {
                                "leaf_count": 26,
                                "leaf_index": 1,
                                "leaf_value": -1.1043054922273012,
                                "leaf_weight": 4.456008195877077
                            },
                            "missing_type": "None",
                            "right_child": {
                                "decision_type": "<=",
                                "default_left": true,
                                "internal_count": 42,
                                "internal_value": -1.18766,
                                "internal_weight": 7.19817,
                                "left_child": {
                                    "leaf_count": 22,
                                    "leaf_index": 18,
                                    "leaf_value": -1.130827394671079,
                                    "leaf_weight": 3.7704684734344482
                                },
                                "missing_type": "None",
                                "right_child": {
                                    "leaf_count": 20,
                                    "leaf_index": 19,
                                    "leaf_value": -1.2501759556680785,
                                    "leaf_weight": 3.4276986122131348
                                },
                                "split_feature": 0,
                                "split_gain": 2.5574700832366943,
                                "split_index": 18,
                                "threshold": 6.500000000000001
                            },
                            "split_feature": 2,
                            "split_gain": 1.91225004196167,
                            "split_index": 17,
                            "threshold": 5.500000000000001
                        },
                        "missing_type": "None",
                        "right_child": {
                            "decision_type": "<=",
                            "default_left": true,
                            "internal_count": 77,
                            "internal_value": -1.22176,
                            "internal_weight": 13.1966,
                            "left_child": {
                                "leaf_count": 23,
                                "leaf_index": 11,
                                "leaf_value": -1.2945713141065758,
                                "leaf_weight": 3.941853404045104
                            },
                            "missing_type": "None",
                            "right_child": {
                                "decision_type": "<=",
                                "default_left": true,
                                "internal_count": 54,
                                "internal_value": -1.19075,
                                "internal_weight": 9.25479,
                                "left_child": {
                                    "leaf_count": 33,
                                    "leaf_index": 12,
                                    "leaf_value": -1.2369150044461896,
                                    "leaf_weight": 5.655702710151671
                                },
                                "missing_type": "None",
                                "right_child": {
                                    "leaf_count": 21,
                                    "leaf_index": 13,
                                    "leaf_value": -1.118197917316899,
                                    "leaf_weight": 3.5990835428237915
                                },
                                "split_feature": 1,
                                "split_gain": 3.099829912185669,
                                "split_index": 12,
                                "threshold": 2.5000000000000004
                            },
                            "split_feature": 2,
                            "split_gain": 2.9798901081085205,
                            "split_index": 11,
                            "threshold": 2.5000000000000004
                        },
                        "split_feature": 1,
                        "split_gain": 2.6934099197387695,
                        "split_index": 10,
                        "threshold": 1.0000000180025095e-35
                    },
                    "missing_type": "None",
                    "right_child": {
                        "decision_type": "<=",
                        "default_left": true,
                        "internal_count": 82,
                        "internal_value": -1.11854,
                        "internal_weight": 14.0536,
                        "left_child": {
                            "decision_type": "<=",
                            "default_left": true,
                            "internal_count": 56,
                            "internal_value": -1.09389,
                            "internal_weight": 9.59756,
                            "left_child": {
                                "leaf_count": 33,
                                "leaf_index": 6,
                                "leaf_value": -1.130827394671079,
                                "leaf_weight": 5.655702710151671
                            },
                            "missing_type": "None",
                            "right_child": {
                                "leaf_count": 23,
                                "leaf_index": 21,
                                "leaf_value": -1.0408835516008763,
                                "leaf_weight": 3.941853404045105
                            },
                            "split_feature": 0,
                            "split_gain": 1.8791799545288086,
                            "split_index": 20,
                            "threshold": 4.500000000000001
                        },
                        "missing_type": "None",
                        "right_child": {
                            "leaf_count": 26,
                            "leaf_index": 20,
                            "leaf_value": -1.17163032150766,
                            "leaf_weight": 4.456008195877074
                        },
                        "split_feature": 0,
                        "split_gain": 1.8393100500106812,
                        "split_index": 19,
                        "threshold": 7.500000000000001
                    },
                    "split_feature": 1,
                    "split_gain": 4.6905598640441895,
                    "split_index": 5,
                    "threshold": 13.500000000000002
                },
                "split_feature": 0,
                "split_gain": 49.39950180053711,
                "split_index": 0,
                "threshold": 2.5000000000000004
            }
        },
        {
            "num_cat": 0,
            "num_leaves": 31,
            "shrinkage": 0.1,
            "tree_index": 1,
            "tree_structure": {
                "decision_type": "<=",
                "default_left": true,
                "internal_count": 1407,
                "internal_value": 0,
                "internal_weight": 0,
                "left_child": {
                    "decision_type": "<=",
                    "default_left": true,
                    "internal_count": 1180,
                    "internal_value": -0.0182127,
                    "internal_weight": 199.967,
                    "left_child": {
                        "decision_type": "<=",
                        "default_left": true,
                        "internal_count": 1054,
                        "internal_value": -0.0109071,
                        "internal_weight": 179.42,
                        "left_child": {
                            "decision_type": "<=",
                            "default_left": true,
                            "internal_count": 885,
                            "internal_value": -0.0201419,
                            "internal_weight": 149.799,
                            "left_child": {
                                "decision_type": "<=",
                                "default_left": true,
                                "internal_count": 696,
                                "internal_value": -0.00983366,
                                "internal_weight": 118.558,
                                "left_child": {
                                    "leaf_count": 90,
                                    "leaf_index": 0,
                                    "leaf_value": 0.031925355322057807,
                                    "leaf_weight": 15.57151213288307
                                },
                                "missing_type": "None",
                                "right_child": {
                                    "decision_type": "<=",
                                    "default_left": true,
                                    "internal_count": 606,
                                    "internal_value": -0.0161476,
                                    "internal_weight": 102.986,
                                    "left_child": {
                                        "decision_type": "<=",
                                        "default_left": true,
                                        "internal_count": 434,
                                        "internal_value": -0.0290565,
                                        "internal_weight": 73.2192,
                                        "left_child": {
                                            "decision_type": "<=",
                                            "default_left": true,
                                            "internal_count": 107,
                                            "internal_value": 0.00101581,
                                            "internal_weight": 18.5128,
                                            "left_child": {
                                                "leaf_count": 20,
                                                "leaf_index": 7,
                                                "leaf_value": -0.09972531042004179,
                                                "leaf_weight": 3.460336029529574
                                            },
                                            "missing_type": "None",
                                            "right_child": {
                                                "decision_type": "<=",
                                                "default_left": true,
                                                "internal_count": 87,
                                                "internal_value": 0.0241747,
                                                "internal_weight": 15.0525,
                                                "left_child": {
                                                    "leaf_count": 46,
                                                    "leaf_index": 12,
                                                    "leaf_value": -0.0029767299754235605,
                                                    "leaf_weight": 7.958772867918013
                                                },
                                                "missing_type": "None",
                                                "right_child": {
                                                    "leaf_count": 41,
                                                    "leaf_index": 26,
                                                    "leaf_value": 0.054637248876613954,
                                                    "leaf_weight": 7.093688860535622
                                                },
                                                "split_feature": 2,
                                                "split_gain": 1.2449899911880493,
                                                "split_index": 25,
                                                "threshold": 2.5000000000000004
                                            },
                                            "split_feature": 2,
                                            "split_gain": 4.319129943847656,
                                            "split_index": 11,
                                            "threshold": 1.0000000180025095e-35
                                        },
                                        "missing_type": "None",
                                        "right_child": {
                                            "decision_type": "<=",
                                            "default_left": true,
                                            "internal_count": 327,
                                            "internal_value": -0.039233,
                                            "internal_weight": 54.7064,
                                            "left_child": {
                                                "leaf_count": 177,
                                                "leaf_index": 11,
                                                "leaf_value": -0.05245768989764102,
                                                "leaf_weight": 29.55831876397133
                                            },
                                            "missing_type": "None",
                                            "right_child": {
                                                "leaf_count": 150,
                                                "leaf_index": 30,
                                                "leaf_value": -0.023689125796958314,
                                                "leaf_weight": 25.148076564073563
                                            },
                                            "split_feature": 1,
                                            "split_gain": 1.124559998512268,
                                            "split_index": 29,
                                            "threshold": 4.500000000000001
                                        },
                                        "split_feature": 1,
                                        "split_gain": 2.2407400608062744,
                                        "split_index": 10,
                                        "threshold": 1.0000000180025095e-35
                                    },
                                    "missing_type": "None",
                                    "right_child": {
                                        "decision_type": "<=",
                                        "default_left": true,
                                        "internal_count": 172,
                                        "internal_value": 0.0156048,
                                        "internal_weight": 29.7671,
                                        "left_child": {
                                            "decision_type": "<=",
                                            "default_left": true,
                                            "internal_count": 70,
                                            "internal_value": 0.0756612,
                                            "internal_weight": 12.588799999999999,
                                            "left_child": {
                                                "decision_type": "<=",
                                                "default_left": true,
                                                "internal_count": 45,
                                                "internal_value": 0.11414,
                                                "internal_weight": 8.14968,
                                                "left_child": {
                                                    "leaf_count": 21,
                                                    "leaf_index": 8,
                                                    "leaf_value": 0.1598447413791018,
                                                    "leaf_weight": 3.7837115824222582
                                                },
                                                "missing_type": "None",
                                                "right_child": {
                                                    "leaf_count": 24,
                                                    "leaf_index": 20,
                                                    "leaf_value": 0.07453084718616776,
                                                    "leaf_weight": 4.3659679889678955
                                                },
                                                "split_feature": 1,
                                                "split_gain": 1.4753600358963013,
                                                "split_index": 19,
                                                "threshold": 83.00000000000001
                                            },
                                            "missing_type": "None",
                                            "right_child": {
                                                "leaf_count": 25,
                                                "leaf_index": 10,
                                                "leaf_value": 0.005018981851256788,
                                                "leaf_weight": 4.439147382974624
                                            },
                                            "split_feature": 2,
                                            "split_gain": 3.4219400882720947,
                                            "split_index": 9,
                                            "threshold": 2.5000000000000004
                                        },
                                        "missing_type": "None",
                                        "right_child": {
                                            "leaf_count": 102,
                                            "leaf_index": 9,
                                            "leaf_value": -0.028406678013851706,
                                            "leaf_weight": 17.178266659379005
                                        },
                                        "split_feature": 1,
                                        "split_gain": 7.867949962615967,
                                        "split_index": 8,
                                        "threshold": 129.50000000000003
                                    },
                                    "split_feature": 1,
                                    "split_gain": 4.2212700843811035,
                                    "split_index": 7,
                                    "threshold": 56.50000000000001
                                },
                                "split_feature": 1,
                                "split_gain": 3.1259500980377197,
                                "split_index": 6,
                                "threshold": -1.0000000180025095e-35
                            },
                            "missing_type": "None",
                            "right_child": {
                                "decision_type": "<=",
                                "default_left": true,
                                "internal_count": 189,
                                "internal_value": -0.0592614,
                                "internal_weight": 31.2407,
                                "left_child": {
                                    "decision_type": "<=",
                                    "default_left": true,
                                    "internal_count": 77,
                                    "internal_value": -0.0335899,
                                    "internal_weight": 12.8496,
                                    "left_child": {
                                        "leaf_count": 30,
                                        "leaf_index": 4,
                                        "leaf_value": 0.007644992867442179,
                                        "leaf_weight": 5.149711817502977
                                    },
                                    "missing_type": "None",
                                    "right_child": {
                                        "decision_type": "<=",
                                        "default_left": true,
                                        "internal_count": 47,
                                        "internal_value": -0.061168,
                                        "internal_weight": 7.69986,
                                        "left_child": {
                                            "leaf_count": 27,
                                            "leaf_index": 23,
                                            "leaf_value": -0.10369001424480558,
                                            "leaf_weight": 4.434434786438942
                                        },
                                        "missing_type": "None",
                                        "right_child": {
                                            "leaf_count": 20,
                                            "leaf_index": 24,
                                            "leaf_value": -0.0034231852018193204,
                                            "leaf_weight": 3.2654230296611786
                                        },
                                        "split_feature": 2,
                                        "split_gain": 1.8906400203704834,
                                        "split_index": 23,
                                        "threshold": 23.500000000000004
                                    },
                                    "split_feature": 2,
                                    "split_gain": 1.4612300395965576,
                                    "split_index": 22,
                                    "threshold": 14.500000000000002
                                },
                                "missing_type": "None",
                                "right_child": {
                                    "leaf_count": 112,
                                    "leaf_index": 22,
                                    "leaf_value": -0.07719760356978927,
                                    "leaf_weight": 18.391178756952286
                                },
                                "split_feature": 1,
                                "split_gain": 1.438480019569397,
                                "split_index": 21,
                                "threshold": 1.5000000000000002
                            },
                            "split_feature": 2,
                            "split_gain": 6.040669918060303,
                            "split_index": 3,
                            "threshold": 8.500000000000002
                        },
                        "missing_type": "None",
                        "right_child": {
                            "decision_type": "<=",
                            "default_left": true,
                            "internal_count": 169,
                            "internal_value": 0.0357935,
                            "internal_weight": 29.6219,
                            "left_child": {
                                "decision_type": "<=",
                                "default_left": true,
                                "internal_count": 141,
                                "internal_value": 0.0182653,
                                "internal_weight": 24.4417,
                                "left_child": {
                                    "decision_type": "<=",
                                    "default_left": true,
                                    "internal_count": 76,
                                    "internal_value": 0.0421214,
                                    "internal_weight": 13.3741,
                                    "left_child": {
                                        "leaf_count": 36,
                                        "leaf_index": 3,
                                        "leaf_value": -0.043607643319168006,
                                        "leaf_weight": 6.006757199764257
                                    },
                                    "missing_type": "None",
                                    "right_child": {
                                        "decision_type": "<=",
                                        "default_left": true,
                                        "internal_count": 40,
                                        "internal_value": 0.112018,
                                        "internal_weight": 7.36739,
                                        "left_child": {
                                            "leaf_count": 20,
                                            "leaf_index": 17,
                                            "leaf_value": 0.15581441596708295,
                                            "leaf_weight": 3.79389226436615
                                        },
                                        "missing_type": "None",
                                        "right_child": {
                                            "leaf_count": 20,
                                            "leaf_index": 19,
                                            "leaf_value": 0.0655200442644451,
                                            "leaf_weight": 3.5734957456588745
                                        },
                                        "split_feature": 2,
                                        "split_gain": 1.5003299713134766,
                                        "split_index": 18,
                                        "threshold": 4.500000000000001
                                    },
                                    "split_feature": 2,
                                    "split_gain": 8.01399040222168,
                                    "split_index": 16,
                                    "threshold": 1.5000000000000002
                                },
                                "missing_type": "None",
                                "right_child": {
                                    "decision_type": "<=",
                                    "default_left": true,
                                    "internal_count": 65,
                                    "internal_value": -0.0105627,
                                    "internal_weight": 11.0676,
                                    "left_child": {
                                        "leaf_count": 21,
                                        "leaf_index": 16,
                                        "leaf_value": 0.0802554324828026,
                                        "leaf_weight": 3.7883198708295804
                                    },
                                    "missing_type": "None",
                                    "right_child": {
                                        "decision_type": "<=",
                                        "default_left": true,
                                        "internal_count": 44,
                                        "internal_value": -0.057827,
                                        "internal_weight": 7.27925,
                                        "left_child": {
                                            "leaf_count": 24,
                                            "leaf_index": 18,
                                            "leaf_value": -0.09955060903496522,
                                            "leaf_weight": 3.8735607862472534
                                        },
                                        "missing_type": "None",
                                        "right_child": {
                                            "leaf_count": 20,
                                            "leaf_index": 21,
                                            "leaf_value": -0.01037138921560743,
                                            "leaf_weight": 3.4056922793388367
                                        },
                                        "split_feature": 1,
                                        "split_gain": 1.4413100481033325,
                                        "split_index": 20,
                                        "threshold": 70.50000000000001
                                    },
                                    "split_feature": 2,
                                    "split_gain": 4.750699996948242,
                                    "split_index": 17,
                                    "threshold": 1.0000000180025095e-35
                                },
                                "split_feature": 1,
                                "split_gain": 1.6809200048446655,
                                "split_index": 15,
                                "threshold": 14.500000000000002
                            },
                            "missing_type": "None",
                            "right_child": {
                                "leaf_count": 28,
                                "leaf_index": 5,
                                "leaf_value": 0.11849823186446143,
                                "leaf_weight": 5.180133163928985
                            },
                            "split_feature": 2,
                            "split_gain": 4.294189929962158,
                            "split_index": 4,
                            "threshold": 15.500000000000002
                        },
                        "split_feature": 0,
                        "split_gain": 7.737880229949951,
                        "split_index": 2,
                        "threshold": 1.0000000180025095e-35
                    },
                    "missing_type": "None",
                    "right_child": {
                        "decision_type": "<=",
                        "default_left": true,
                        "internal_count": 126,
                        "internal_value": -0.082008,
                        "internal_weight": 20.5465,
                        "left_child": {
                            "leaf_count": 28,
                            "leaf_index": 2,
                            "leaf_value": -0.12581100677210053,
                            "leaf_weight": 4.565892636775973
                        },
                        "missing_type": "None",
                        "right_child": {
                            "leaf_count": 98,
                            "leaf_index": 29,
                            "leaf_value": -0.069492806236306,
                            "leaf_weight": 15.980624228715895
                        },
                        "split_feature": 2,
                        "split_gain": 1.1263600587844849,
                        "split_index": 28,
                        "threshold": 47.50000000000001
                    },
                    "split_feature": 2,
                    "split_gain": 9.319689750671387,
                    "split_index": 1,
                    "threshold": 37.50000000000001
                },
                "missing_type": "None",
                "right_child": {
                    "decision_type": "<=",
                    "default_left": true,
                    "internal_count": 227,
                    "internal_value": 0.0874093,
                    "internal_weight": 41.1358,
                    "left_child": {
                        "decision_type": "<=",
                        "default_left": true,
                        "internal_count": 164,
                        "internal_value": 0.0694281,
                        "internal_weight": 29.4573,
                        "left_child": {
                            "decision_type": "<=",
                            "default_left": true,
                            "internal_count": 140,
                            "internal_value": 0.0803576,
                            "internal_weight": 25.103,
                            "left_child": {
                                "decision_type": "<=",
                                "default_left": true,
                                "internal_count": 112,
                                "internal_value": 0.0630421,
                                "internal_weight": 20.1122,
                                "left_child": {
                                    "decision_type": "<=",
                                    "default_left": true,
                                    "internal_count": 47,
                                    "internal_value": 0.100331,
                                    "internal_weight": 8.60976,
                                    "left_child": {
                                        "leaf_count": 26,
                                        "leaf_index": 1,
                                        "leaf_value": 0.1342843722533421,
                                        "leaf_weight": 4.86111295223237
                                    },
                                    "missing_type": "None",
                                    "right_child": {
                                        "leaf_count": 21,
                                        "leaf_index": 25,
                                        "leaf_value": 0.056301583492204446,
                                        "leaf_weight": 3.74864998459816
                                    },
                                    "split_feature": 2,
                                    "split_gain": 1.2871099710464478,
                                    "split_index": 24,
                                    "threshold": 5.500000000000001
                                },
                                "missing_type": "None",
                                "right_child": {
                                    "decision_type": "<=",
                                    "default_left": true,
                                    "internal_count": 65,
                                    "internal_value": 0.0351307,
                                    "internal_weight": 11.5024,
                                    "left_child": {
                                        "leaf_count": 31,
                                        "leaf_index": 15,
                                        "leaf_value": 0.0012104279910623741,
                                        "leaf_weight": 5.3760863542556745
                                    },
                                    "missing_type": "None",
                                    "right_child": {
                                        "leaf_count": 34,
                                        "leaf_index": 28,
                                        "leaf_value": 0.0648969998503449,
                                        "leaf_weight": 6.126344561576843
                                    },
                                    "split_feature": 2,
                                    "split_gain": 1.1613800525665283,
                                    "split_index": 27,
                                    "threshold": 2.5000000000000004
                                },
                                "split_feature": 1,
                                "split_gain": 2.093250036239624,
                                "split_index": 14,
                                "threshold": 1.0000000180025095e-35
                            },
                            "missing_type": "None",
                            "right_child": {
                                "leaf_count": 28,
                                "leaf_index": 14,
                                "leaf_value": 0.15013568942229022,
                                "leaf_weight": 4.990850508213042
                            },
                            "split_feature": 2,
                            "split_gain": 3.033050060272217,
                            "split_index": 13,
                            "threshold": 16.500000000000004
                        },
                        "missing_type": "None",
                        "right_child": {
                            "leaf_count": 24,
                            "leaf_index": 13,
                            "leaf_value": 0.0064177071454022475,
                            "leaf_weight": 4.354237884283065
                        },
                        "split_feature": 2,
                        "split_gain": 2.028630018234253,
                        "split_index": 12,
                        "threshold": 39.50000000000001
                    },
                    "missing_type": "None",
                    "right_child": {
                        "decision_type": "<=",
                        "default_left": true,
                        "internal_count": 63,
                        "internal_value": 0.132764,
                        "internal_weight": 11.6785,
                        "left_child": {
                            "leaf_count": 22,
                            "leaf_index": 6,
                            "leaf_value": 0.08835981210595631,
                            "leaf_weight": 4.073226317763327
                        },
                        "missing_type": "None",
                        "right_child": {
                            "leaf_count": 41,
                            "leaf_index": 27,
                            "leaf_value": 0.15654569001298602,
                            "leaf_weight": 7.605317324399948
                        },
                        "split_feature": 2,
                        "split_gain": 1.2332600355148315,
                        "split_index": 26,
                        "threshold": 1.5000000000000002
                    },
                    "split_feature": 1,
                    "split_gain": 3.3547399044036865,
                    "split_index": 5,
                    "threshold": 30.500000000000004
                },
                "split_feature": 0,
                "split_gain": 38.0614013671875,
                "split_index": 0,
                "threshold": 2.5000000000000004
            }
        },
        {
            "num_cat": 0,
            "num_leaves": 31,
            "shrinkage": 0.1,
            "tree_index": 2,
            "tree_structure": {
                "decision_type": "<=",
                "default_left": true,
                "internal_count": 1407,
                "internal_value": 0,
                "internal_weight": 0,
                "left_child": {
                    "decision_type": "<=",
                    "default_left": true,
                    "internal_count": 1180,
                    "internal_value": -0.0167057,
                    "internal_weight": 197.634,
                    "left_child": {
                        "decision_type": "<=",
                        "default_left": true,
                        "internal_count": 1054,
                        "internal_value": -0.00999977,
                        "internal_weight": 178.078,
                        "left_child": {
                            "decision_type": "<=",
                            "default_left": true,
                            "internal_count": 885,
                            "internal_value": -0.0184374,
                            "internal_weight": 147.982,
                            "left_child": {
                                "decision_type": "<=",
                                "default_left": true,
                                "internal_count": 696,
                                "internal_value": -0.00897578,
                                "internal_weight": 117.823,
                                "left_child": {
                                    "leaf_count": 90,
                                    "leaf_index": 0,
                                    "leaf_value": 0.028205516735205605,
                                    "leaf_weight": 15.847023278474806
                                },
                                "missing_type": "None",
                                "right_child": {
                                    "decision_type": "<=",
                                    "default_left": true,
                                    "internal_count": 606,
                                    "internal_value": -0.0147537,
                                    "internal_weight": 101.976,
                                    "left_child": {
                                        "decision_type": "<=",
                                        "default_left": true,
                                        "internal_count": 434,
                                        "internal_value": -0.0266556,
                                        "internal_weight": 71.9938,
                                        "left_child": {
                                            "decision_type": "<=",
                                            "default_left": true,
                                            "internal_count": 107,
                                            "internal_value": 0.000830354,
                                            "internal_weight": 18.5224,
                                            "left_child": {
                                                "leaf_count": 20,
                                                "leaf_index": 6,
                                                "leaf_value": -0.09531251572852323,
                                                "leaf_weight": 3.2685208320617702
                                            },
                                            "missing_type": "None",
                                            "right_child": {
                                                "leaf_count": 87,
                                                "leaf_index": 14,
                                                "leaf_value": 0.02143135564114687,
                                                "leaf_weight": 15.25386846065521
                                            },
                                            "split_feature": 2,
                                            "split_gain": 3.6686201095581055,
                                            "split_index": 13,
                                            "threshold": 1.0000000180025095e-35
                                        },
                                        "missing_type": "None",
                                        "right_child": {
                                            "decision_type": "<=",
                                            "default_left": true,
                                            "internal_count": 327,
                                            "internal_value": -0.0361766,
                                            "internal_weight": 53.4714,
                                            "left_child": {
                                                "leaf_count": 177,
                                                "leaf_index": 13,
                                                "leaf_value": -0.04876463767595385,
                                                "leaf_weight": 28.66519609093666
                                            },
                                            "missing_type": "None",
                                            "right_child": {
                                                "decision_type": "<=",
                                                "default_left": true,
                                                "internal_count": 150,
                                                "internal_value": -0.0216304,
                                                "internal_weight": 24.8062,
                                                "left_child": {
                                                    "leaf_count": 83,
                                                    "leaf_index": 29,
                                                    "leaf_value": -0.0019110602939067891,
                                                    "leaf_weight": 13.671493992209436
                                                },
                                                "missing_type": "None",
                                                "right_child": {
                                                    "leaf_count": 67,
                                                    "leaf_index": 30,
                                                    "leaf_value": -0.04584229766253342,
                                                    "leaf_weight": 11.134700164198874
                                                },
                                                "split_feature": 1,
                                                "split_gain": 1.1843500137329102,
                                                "split_index": 29,
                                                "threshold": 21.500000000000004
                                            },
                                            "split_feature": 1,
                                            "split_gain": 0.9791060090065002,
                                            "split_index": 28,
                                            "threshold": 4.500000000000001
                                        },
                                        "split_feature": 1,
                                        "split_gain": 1.8840399980545044,
                                        "split_index": 12,
                                        "threshold": 1.0000000180025095e-35
                                    },
                                    "missing_type": "None",
                                    "right_child": {
                                        "decision_type": "<=",
                                        "default_left": true,
                                        "internal_count": 172,
                                        "internal_value": 0.0138249,
                                        "internal_weight": 29.9825,
                                        "left_child": {
                                            "decision_type": "<=",
                                            "default_left": true,
                                            "internal_count": 70,
                                            "internal_value": 0.0652835,
                                            "internal_weight": 13.0826,
                                            "left_child": {
                                                "decision_type": "<=",
                                                "default_left": true,
                                                "internal_count": 45,
                                                "internal_value": 0.0966262,
                                                "internal_weight": 8.63153,
                                                "left_child": {
                                                    "leaf_count": 21,
                                                    "leaf_index": 7,
                                                    "leaf_value": 0.13222265915932294,
                                                    "leaf_weight": 4.097632423043253
                                                },
                                                "missing_type": "None",
                                                "right_child": {
                                                    "leaf_count": 24,
                                                    "leaf_index": 28,
                                                    "leaf_value": 0.06445493268947235,
                                                    "leaf_weight": 4.533893465995789
                                                },
                                                "split_feature": 1,
                                                "split_gain": 0.9884679913520813,
                                                "split_index": 27,
                                                "threshold": 83.00000000000001
                                            },
                                            "missing_type": "None",
                                            "right_child": {
                                                "leaf_count": 25,
                                                "leaf_index": 9,
                                                "leaf_value": 0.004504268253557231,
                                                "leaf_weight": 4.451110079884528
                                            },
                                            "split_feature": 2,
                                            "split_gain": 2.492219924926758,
                                            "split_index": 8,
                                            "threshold": 2.5000000000000004
                                        },
                                        "missing_type": "None",
                                        "right_child": {
                                            "leaf_count": 102,
                                            "leaf_index": 8,
                                            "leaf_value": -0.026010564597885973,
                                            "leaf_weight": 16.899866074323654
                                        },
                                        "split_feature": 1,
                                        "split_gain": 6.146049976348877,
                                        "split_index": 7,
                                        "threshold": 129.50000000000003
                                    },
                                    "split_feature": 1,
                                    "split_gain": 3.4686100482940674,
                                    "split_index": 6,
                                    "threshold": 56.50000000000001
                                },
                                "split_feature": 1,
                                "split_gain": 2.531209945678711,
                                "split_index": 5,
                                "threshold": -1.0000000180025095e-35
                            },
                            "missing_type": "None",
                            "right_child": {
                                "decision_type": "<=",
                                "default_left": true,
                                "internal_count": 189,
                                "internal_value": -0.0554024,
                                "internal_weight": 30.1583,
                                "left_child": {
                                    "decision_type": "<=",
                                    "default_left": true,
                                    "internal_count": 133,
                                    "internal_value": -0.041862,
                                    "internal_weight": 21.497,
                                    "left_child": {
                                        "decision_type": "<=",
                                        "default_left": true,
                                        "internal_count": 69,
                                        "internal_value": -0.0207929,
                                        "internal_weight": 11.3608,
                                        "left_child": {
                                            "leaf_count": 25,
                                            "leaf_index": 4,
                                            "leaf_value": 0.03272712319674252,
                                            "leaf_weight": 4.333998188376432
                                        },
                                        "missing_type": "None",
                                        "right_child": {
                                            "leaf_count": 44,
                                            "leaf_index": 25,
                                            "leaf_value": -0.053803105216149893,
                                            "leaf_weight": 7.026779443025589
                                        },
                                        "split_feature": 1,
                                        "split_gain": 2.00711989402771,
                                        "split_index": 24,
                                        "threshold": 1.0000000180025095e-35
                                    },
                                    "missing_type": "None",
                                    "right_child": {
                                        "decision_type": "<=",
                                        "default_left": true,
                                        "internal_count": 64,
                                        "internal_value": -0.0654767,
                                        "internal_weight": 10.1362,
                                        "left_child": {
                                            "leaf_count": 24,
                                            "leaf_index": 24,
                                            "leaf_value": -0.12333540785010555,
                                            "leaf_weight": 3.675757646560667
                                        },
                                        "missing_type": "None",
                                        "right_child": {
                                            "leaf_count": 40,
                                            "leaf_index": 26,
                                            "leaf_value": -0.03255707344749241,
                                            "leaf_weight": 6.460432857275009
                                        },
                                        "split_feature": 1,
                                        "split_gain": 1.9306299686431885,
                                        "split_index": 25,
                                        "threshold": 1.0000000180025095e-35
                                    },
                                    "split_feature": 2,
                                    "split_gain": 1.0695600509643555,
                                    "split_index": 23,
                                    "threshold": 16.500000000000004
                                },
                                "missing_type": "None",
                                "right_child": {
                                    "leaf_count": 56,
                                    "leaf_index": 19,
                                    "leaf_value": -0.08900892142389943,
                                    "leaf_weight": 8.661297202110289
                                },
                                "split_feature": 1,
                                "split_gain": 1.3723299503326416,
                                "split_index": 18,
                                "threshold": 24.500000000000004
                            },
                            "split_feature": 2,
                            "split_gain": 5.175640106201172,
                            "split_index": 3,
                            "threshold": 8.500000000000002
                        },
                        "missing_type": "None",
                        "right_child": {
                            "decision_type": "<=",
                            "default_left": true,
                            "internal_count": 169,
                            "internal_value": 0.0314874,
                            "internal_weight": 30.0964,
                            "left_child": {
                                "decision_type": "<=",
                                "default_left": true,
                                "internal_count": 141,
                                "internal_value": 0.0161344,
                                "internal_weight": 24.6082,
                                "left_child": {
                                    "decision_type": "<=",
                                    "default_left": true,
                                    "internal_count": 116,
                                    "internal_value": 0.0279255,
                                    "internal_weight": 20.2265,
                                    "left_child": {
                                        "decision_type": "<=",
                                        "default_left": true,
                                        "internal_count": 56,
                                        "internal_value": -0.0102302,
                                        "internal_weight": 9.37997,
                                        "left_child": {
                                            "leaf_count": 34,
                                            "leaf_index": 3,
                                            "leaf_value": 0.04170582239809748,
                                            "leaf_weight": 5.859558269381532
                                        },
                                        "missing_type": "None",
                                        "right_child": {
                                            "leaf_count": 22,
                                            "leaf_index": 17,
                                            "leaf_value": -0.09667517596401781,
                                            "leaf_weight": 3.5204142183065414
                                        },
                                        "split_feature": 2,
                                        "split_gain": 4.211239814758301,
                                        "split_index": 16,
                                        "threshold": 1.0000000180025095e-35
                                    },
                                    "missing_type": "None",
                                    "right_child": {
                                        "decision_type": "<=",
                                        "default_left": true,
                                        "internal_count": 60,
                                        "internal_value": 0.0609223,
                                        "internal_weight": 10.8465,
                                        "left_child": {
                                            "decision_type": "<=",
                                            "default_left": true,
                                            "internal_count": 40,
                                            "internal_value": 0.0952016,
                                            "internal_weight": 7.77423,
                                            "left_child": {
                                                "leaf_count": 20,
                                                "leaf_index": 16,
                                                "leaf_value": 0.12997113082334952,
                                                "leaf_weight": 4.076334834098814
                                            },
                                            "missing_type": "None",
                                            "right_child": {
                                                "leaf_count": 20,
                                                "leaf_index": 27,
                                                "leaf_value": 0.056873834832946106,
                                                "leaf_weight": 3.697899580001831
                                            },
                                            "split_feature": 2,
                                            "split_gain": 1.036020040512085,
                                            "split_index": 26,
                                            "threshold": 4.500000000000001
                                        },
                                        "missing_type": "None",
                                        "right_child": {
                                            "leaf_count": 20,
                                            "leaf_index": 18,
                                            "leaf_value": -0.025819617312077044,
                                            "leaf_weight": 3.0722841918468475
                                        },
                                        "split_feature": 1,
                                        "split_gain": 3.2251598834991455,
                                        "split_index": 17,
                                        "threshold": 14.500000000000002
                                    },
                                    "split_feature": 2,
                                    "split_gain": 2.5465400218963623,
                                    "split_index": 15,
                                    "threshold": 1.5000000000000002
                                },
                                "missing_type": "None",
                                "right_child": {
                                    "leaf_count": 25,
                                    "leaf_index": 15,
                                    "leaf_value": -0.03829466760847994,
                                    "leaf_weight": 4.381704539060592
                                },
                                "split_feature": 1,
                                "split_gain": 1.579300045967102,
                                "split_index": 14,
                                "threshold": 91.50000000000001
                            },
                            "missing_type": "None",
                            "right_child": {
                                "leaf_count": 28,
                                "leaf_index": 5,
                                "leaf_value": 0.10032734086130249,
                                "leaf_weight": 5.488205134868621
                            },
                            "split_feature": 2,
                            "split_gain": 3.1808700561523438,
                            "split_index": 4,
                            "threshold": 15.500000000000002
                        },
                        "split_feature": 0,
                        "split_gain": 6.23367977142334,
                        "split_index": 2,
                        "threshold": 1.0000000180025095e-35
                    },
                    "missing_type": "None",
                    "right_child": {
                        "decision_type": "<=",
                        "default_left": true,
                        "internal_count": 126,
                        "internal_value": -0.077771,
                        "internal_weight": 19.5558,
                        "left_child": {
                            "leaf_count": 28,
                            "leaf_index": 2,
                            "leaf_value": -0.12275965790282993,
                            "leaf_weight": 4.228755414485934
                        },
                        "missing_type": "None",
                        "right_child": {
                            "leaf_count": 98,
                            "leaf_index": 23,
                            "leaf_value": -0.06535864207484147,
                            "leaf_weight": 15.327082693576811
                        },
                        "split_feature": 2,
                        "split_gain": 1.0920300483703613,
                        "split_index": 22,
                        "threshold": 47.50000000000001
                    },
                    "split_feature": 2,
                    "split_gain": 8.093130111694336,
                    "split_index": 1,
                    "threshold": 37.50000000000001
                },
                "missing_type": "None",
                "right_child": {
                    "decision_type": "<=",
                    "default_left": true,
                    "internal_count": 227,
                    "internal_value": 0.0750551,
                    "internal_weight": 42.9615,
                    "left_child": {
                        "decision_type": "<=",
                        "default_left": true,
                        "internal_count": 152,
                        "internal_value": 0.05776,
                        "internal_weight": 28.2708,
                        "left_child": {
                            "leaf_count": 68,
                            "leaf_index": 1,
                            "leaf_value": 0.08091791680774431,
                            "leaf_weight": 12.975710451602938
                        },
                        "missing_type": "None",
                        "right_child": {
                            "decision_type": "<=",
                            "default_left": true,
                            "internal_count": 84,
                            "internal_value": 0.0381139,
                            "internal_weight": 15.2951,
                            "left_child": {
                                "leaf_count": 24,
                                "leaf_index": 20,
                                "leaf_value": -0.029735108923379678,
                                "leaf_weight": 4.078533455729484
                            },
                            "missing_type": "None",
                            "right_child": {
                                "decision_type": "<=",
                                "default_left": true,
                                "internal_count": 60,
                                "internal_value": 0.0627849,
                                "internal_weight": 11.2166,
                                "left_child": {
                                    "leaf_count": 33,
                                    "leaf_index": 21,
                                    "leaf_value": 0.01757006625769553,
                                    "leaf_weight": 6.027173846960066
                                },
                                "missing_type": "None",
                                "right_child": {
                                    "leaf_count": 27,
                                    "leaf_index": 22,
                                    "leaf_value": 0.11529881298886589,
                                    "leaf_weight": 5.189426958560944
                                },
                                "split_feature": 1,
                                "split_gain": 2.6632800102233887,
                                "split_index": 21,
                                "threshold": 2.5000000000000004
                            },
                            "split_feature": 2,
                            "split_gain": 2.5602500438690186,
                            "split_index": 20,
                            "threshold": 2.5000000000000004
                        },
                        "split_feature": 1,
                        "split_gain": 1.2862199544906616,
                        "split_index": 19,
                        "threshold": 1.0000000180025095e-35
                    },
                    "missing_type": "None",
                    "right_child": {
                        "decision_type": "<=",
                        "default_left": true,
                        "internal_count": 75,
                        "internal_value": 0.108338,
                        "internal_weight": 14.6906,
                        "left_child": {
                            "leaf_count": 20,
                            "leaf_index": 10,
                            "leaf_value": 0.17882118158048765,
                            "leaf_weight": 3.8239255845546714
                        },
                        "missing_type": "None",
                        "right_child": {
                            "decision_type": "<=",
                            "default_left": true,
                            "internal_count": 55,
                            "internal_value": 0.0835354,
                            "internal_weight": 10.8667,
                            "left_child": {
                                "leaf_count": 33,
                                "leaf_index": 11,
                                "leaf_value": 0.0457029933892024,
                                "leaf_weight": 6.54587861895561
                            },
                            "missing_type": "None",
                            "right_child": {
                                "leaf_count": 22,
                                "leaf_index": 12,
                                "leaf_value": 0.14085024840997612,
                                "leaf_weight": 4.320803284645081
                            },
                            "split_feature": 1,
                            "split_gain": 2.356290102005005,
                            "split_index": 11,
                            "threshold": 325.50000000000006
                        },
                        "split_feature": 1,
                        "split_gain": 2.5681700706481934,
                        "split_index": 10,
                        "threshold": 51.50000000000001
                    },
                    "split_feature": 1,
                    "split_gain": 2.472990036010742,
                    "split_index": 9,
                    "threshold": 18.500000000000004
                },
                "split_feature": 0,
                "split_gain": 29.714500427246094,
                "split_index": 0,
                "threshold": 2.5000000000000004
            }
        },
        {
            "num_cat": 0,
            "num_leaves": 31,
            "shrinkage": 0.1,
            "tree_index": 3,
            "tree_structure": {
                "decision_type": "<=",
                "default_left": true,
                "internal_count": 1407,
                "internal_value": 0,
                "internal_weight": 0,
                "left_child": {
                    "decision_type": "<=",
                    "default_left": true,
                    "internal_count": 981,
                    "internal_value": -0.0224392,
                    "internal_weight": 160.393,
                    "left_child": {
                        "decision_type": "<=",
                        "default_left": true,
                        "internal_count": 774,
                        "internal_value": -0.0108599,
                        "internal_weight": 129.435,
                        "left_child": {
                            "decision_type": "<=",
                            "default_left": true,
                            "internal_count": 217,
                            "internal_value": 0.0143796,
                            "internal_weight": 38.1803,
                            "left_child": {
                                "decision_type": "<=",
                                "default_left": true,
                                "internal_count": 193,
                                "internal_value": 0.00912176,
                                "internal_weight": 33.8865,
                                "left_child": {
                                    "leaf_count": 157,
                                    "leaf_index": 0,
                                    "leaf_value": 0.020275357697038754,
                                    "leaf_weight": 27.41112956404686
                                },
                                "missing_type": "None",
                                "right_child": {
                                    "leaf_count": 36,
                                    "leaf_index": 30,
                                    "leaf_value": -0.038092970629046374,
                                    "leaf_weight": 6.475369662046432
                                },
                                "split_feature": 2,
                                "split_gain": 1.7845100164413452,
                                "split_index": 29,
                                "threshold": 3.5000000000000004
                            },
                            "missing_type": "None",
                            "right_child": {
                                "leaf_count": 24,
                                "leaf_index": 29,
                                "leaf_value": 0.05587449518647874,
                                "leaf_weight": 4.293769121170043
                            },
                            "split_feature": 2,
                            "split_gain": 0.8329910039901733,
                            "split_index": 28,
                            "threshold": 7.500000000000001
                        },
                        "missing_type": "None",
                        "right_child": {
                            "decision_type": "<=",
                            "default_left": true,
                            "internal_count": 557,
                            "internal_value": -0.0214198,
                            "internal_weight": 91.2548,
                            "left_child": {
                                "decision_type": "<=",
                                "default_left": true,
                                "internal_count": 337,
                                "internal_value": -0.0389454,
                                "internal_weight": 53.5876,
                                "left_child": {
                                    "decision_type": "<=",
                                    "default_left": true,
                                    "internal_count": 307,
                                    "internal_value": -0.0347352,
                                    "internal_weight": 48.8487,
                                    "left_child": {
                                        "decision_type": "<=",
                                        "default_left": true,
                                        "internal_count": 252,
                                        "internal_value": -0.0446008,
                                        "internal_weight": 39.9667,
                                        "left_child": {
                                            "decision_type": "<=",
                                            "default_left": true,
                                            "internal_count": 217,
                                            "internal_value": -0.0376921,
                                            "internal_weight": 34.469,
                                            "left_child": {
                                                "leaf_count": 193,
